encog,BasicNetwork,java,3.4.0,1,1747518464374
[BASIC]
[BASIC:PARAMS]
[BASIC:NETWORK]
beginTraining=0
connectionLimit=0
contextTargetOffset=0,0,0
contextTargetSize=0,0,0
endTraining=2
hasContext=f
inputCount=9
layerCounts=9,13,10
layerFeedCounts=9,12,9
layerContextCount=0,0,0
layerIndex=0,9,22
output=0.6806555755,0.5675511426,0.8060731791,0.2894865391,0.0486741417,0.3666342603,0.7600479441,0.5964757895,0.3858499214,0.9130588452,0.0717456632,0.1899626694,0.4511084389,0.9400369242,0.6704716544,0.2157349786,0.4918884687,0.809361527,0.649938725,0.2055993361,0.8789138013,1,0,0.5,1,0.5,0,0.5,0.5,0.5,0.5,1
outputCount=9
weightIndex=0,117,237
weights=-0.9544266897,-0.8850533704,-1.0329270777,-0.6554901728,-0.5577134538,0.4161085101,0.1247777733,-0.0256011095,-1.2636941212,0.4223330562,-0.6622639224,0.3116338717,0.4542665105,-0.2845939312,0.4800331019,-0.9843149734,0.7232149702,-0.0173214744,0.8773369969,0.6934214032,0.9203936599,0.4207464487,-0.0861788496,-0.1327693905,-0.820600998,-0.7934471916,0.0576045492,0.1765283939,0.9633202101,-0.5532563954,-1.3458226043,-0.3383212592,-0.5766928432,-0.9794407008,0.2509890109,0.7870058102,-0.354628112,-0.1282582998,0.4620562592,-0.8477282048,0.170966126,-0.9045963582,0.7063042043,0.7983290825,0.9523303825,-0.8858889293,0.9994276663,0.2086872983,-0.6656182713,-0.4336209242,-0.2394985753,-0.8229578921,-0.3554823563,-0.8045403585,0.2589222419,0.3620053585,-0.7501410274,-0.6574098789,-0.842303129,0.3715560296,0.240314713,0.1638025977,-0.3814721766,-0.8522215301,0.4943112796,0.0674042554,0.2320593628,0.9410046882,-0.9251557501,-0.8066872103,-0.468284205,0.2478876882,-0.6053697958,0.1607393037,-0.7176735999,0.8030211799,0.8880190111,0.7797119743,0.8340136325,0.4664010135,-0.2986527395,0.0324005825,-0.8907907932,0.7276442679,0.2996846485,-0.8286537474,-0.6382154034,-0.0762503004,1.019198999,-0.3153107782,0.3489093135,0.8190864285,0.7849334114,-0.6414475857,-0.086416075,0.0905026351,-0.1933177284,0.7133338931,0.2589489183,0.7103404526,-0.73214056,0.0918329019,-0.9608738484,-0.4337895434,0.3400525209,-0.3885512208,0.5564961468,-0.3283325349,0.0381464198,-0.1384431893,-0.5352409765,-0.5339668262,0.8462606112,-0.3694811718,0.5880988711,-0.3721616011,-0.4344639068,0.8389752068,0.132437093,0.761096456,0.3510802108,-0.3931235113,0.3959846974,-1.165523452,0.0265137098,0.9588609218,0.6535802622,0.4881114851,-0.4747767271,-0.2533036285,-0.723426869,-0.1190155756,-0.9752884775,0.7780542603,-0.9948709073,-0.8235732931,-0.8300123494,-0.7951035008,0.6650160686,-0.8937012457,0.9221272349,0.2742388833,0.131936471,-0.552178973,-0.6933189485,-0.1800128285,-0.4275956428,0.6332102982,-0.192886616,-0.7139775484,0.2346454396,-0.1917964911,0.0518806118,-0.1411833024,0.1897077726,0.4166032064,0.8005833485,0.3896718056,0.8043895877,0.7076083731,0.987340956,-0.0812169559,0.6254534779,1.0294149779,0.3697968046,-0.4098193604,0.5696804111,-0.5046607702,0.337775581,0.338221941,0.3114130976,-0.4907869298,-0.1775881923,-1.2878826507,0.5037723888,-0.7069657202,0.1759060174,0.7789482916,0.5629345588,-0.8744864945,0.7623951406,-0.8749901286,-0.9224674689,0.9094319835,-0.7917898634,-0.8060579988,-0.4394835242,0.7482173911,0.3364502034,0.4523565261,0.4118702312,0.8710578609,-0.3938446743,1.0837621369,0.7217496835,-0.4272425315,-0.823059547,0.3288165758,0.541666867,-0.7010078951,0.6609013577,0.1057872881,0.9021255314,0.5261026247,-0.061980335,0.1094491157,1.0648631834,0.442750036,0.7207549215,0.1504786182,-0.2786800683,0.228237178,-0.4373778405,-0.9907599872,0.5992559594,-0.0098384742,-0.2578931924,0.9333116466,0.4231117779,-0.7543950926,0.2503287466,0.8267320303,-0.3101035134,-0.6792030449,0.9286567406,0.5118066814,-0.8569052812,0.0875222819,-0.1582230718,0.9655348637,0.5724728819,-0.543318986,0.607810493,0.2380785886,-0.1328072084,-0.3275212371,0.1436570718
biasActivation=0,1,1
[BASIC:ACTIVATION]
"org.encog.engine.network.activation.ActivationSigmoid"
"org.encog.engine.network.activation.ActivationSigmoid"
"org.encog.engine.network.activation.ActivationLinear"
